DT 1.1646897 -0.07695295 0.3536087 0.5810998 0.48901346 -0.39983806 0.5168528 0.4444984 -1.0238466 0.33882648 -0.70515555 0.25206545 0.12089302 0.051476315 -0.2389108 0.17466041 0.68656194 0.2107073 0.16937988 -0.44939554
JJR 0.3172782 -0.017808037 -0.15633287 -0.41664645 -0.052117165 0.3812341 0.2585132 0.22484119 -0.25661948 -0.055959236 -0.07889028 0.14139706 -0.16475871 0.28535646 -0.09255593 -0.3033184 -0.09099766 0.030007057 -0.121528536 0.25039348
WP -0.7236521 -0.41674662 -0.3864861 0.4222948 0.28093916 0.20019542 0.19328356 -0.47678998 -0.5095425 0.3088703 -0.06384416 -0.00033482784 0.08866587 -0.3598641 0.029466586 0.24839897 -0.21227567 0.0062051187 0.0046168086 -0.40838137
VBG -0.26324806 0.24198096 -0.10832123 -0.14930068 -0.12668687 0.016442783 0.7533678 -0.12810737 -0.041358896 0.11067544 0.12094671 -0.12167765 0.23461375 -0.36230695 0.12661634 0.246632 -0.15017316 -0.16900457 -0.46560696 0.10621158
PRP -0.14163463 -0.3378835 0.15699995 -0.6048501 0.33057994 0.71217227 -0.11762733 -0.29683852 -0.39156857 -0.0005987066 -0.61211777 0.925612 -0.004689521 -1.1216199 0.2724776 -0.5500716 0.034202777 0.22763652 0.118449315 0.18431345
'' -0.21875447 0.7748272 0.17486851 0.7852187 -0.036261782 -0.30791372 0.073760994 -0.23023278 -0.108157344 -0.09220463 0.27511662 0.008550462 0.078158624 -0.71421945 0.34410357 -0.4677849 -0.60101944 0.52877784 -0.4913841 -0.8811272
FW 0.117051944 0.4025051 -0.16708526 -0.09891705 -0.13926163 -0.02259544 0.011970624 -0.043252096 -0.08675398 -0.102496885 0.115877695 -0.108276926 0.32647577 -0.24433641 -0.10854653 -0.279539 0.1028779 -0.35947186 -0.13126305 0.15128696
PRP$ 0.06902526 0.18905187 0.23727418 -0.22158302 0.13156973 -0.0017912736 0.13256265 0.29393646 -0.2670482 -0.025857856 -0.045434285 0.25596333 -0.11513823 -0.008351666 -0.28317913 -0.20240295 -0.04584478 0.16673106 -0.0505663 -0.2190965
, 0.055238154 -0.86183757 0.31612825 -0.5050624 -0.59445524 -0.24198176 0.56354487 -0.3874588 0.24052599 -0.25905156 0.64370704 0.7077139 -0.6084441 0.6881542 0.019213516 -0.043003082 0.4634199 0.32573262 0.091598816 -0.62133163
RBS -0.65938395 -0.029855086 -0.01596618 -0.017213237 0.43588877 -0.047008198 0.26302406 -0.16979945 0.294696 -0.30882102 -0.31540236 -0.20220314 -0.3059243 -0.006985458 0.17919387 0.12340965 0.098316275 0.13838437 -0.13257462 0.053995207
CD -0.3509705 0.4050456 0.56859696 -0.4364936 -0.116153 -0.1389848 -0.064459845 0.1578382 -0.22930253 -0.81023234 -0.78470314 0.5435148 0.7471305 0.12248973 -0.38346532 0.30063653 -0.67337143 -0.88796633 0.47430143 -0.53118503
MD 0.055936802 0.6411584 0.53454816 -0.120913655 0.35216135 0.4869628 0.21014783 -0.4212585 0.08745634 0.22741519 0.5415357 0.2467537 0.6960696 0.56989366 -0.48451403 0.43516913 -0.45537016 0.85720307 -0.33393988 0.008895056
. -0.6040627 -0.42796838 0.044491813 -0.37060758 0.3600947 0.13053875 -0.021765074 -0.30469945 -0.032309476 0.03506856 0.1787135 0.03421038 -0.42630395 0.52130616 -0.6150939 0.6377908 0.9116601 -0.0136935515 0.29483667 0.414861
UH 0.07143383 -0.19826178 -0.25842202 -0.14831802 -0.17005304 0.03654767 0.0018212275 0.046311706 0.20097542 -0.21271019 0.07776618 -0.3458806 -0.086204655 -0.1676432 -0.041029196 0.27701485 0.04253473 -0.18403034 -0.39339432 0.156326
TO 0.69753695 0.064112514 -0.34371582 -0.8505714 0.0826763 0.48032948 0.21947134 -0.33437306 -0.29690087 -0.038498707 0.41417918 -0.32940653 -0.0009126871 0.34717003 0.638669 0.3050283 -0.1858258 0.38405755 0.40704247 -0.3108152
RBR 0.10049902 -0.24419917 -0.13422203 -0.31642258 0.11016525 0.25725374 0.57518756 0.10289781 0.0014023046 0.1605222 -0.21552022 -0.059508353 -0.09972177 0.11634748 -0.044103853 -0.18712614 -0.36192852 0.31420743 -0.2070355 -0.04978562
WP$ -0.056516375 -0.06353456 -0.1187802 -0.0017416255 -0.075155675 -0.11847802 -0.08925111 0.16275084 -0.3075916 0.017023087 0.024196122 0.22460738 -0.03187733 0.13648354 0.28153867 0.052809216 0.39485347 0.055350654 0.23918396 -0.23114718
RP -0.12184778 -0.25221887 -0.08839068 -0.3337267 0.071357004 0.14937097 0.13487202 0.09537481 -0.3452386 0.105430655 -0.05294203 0.2034621 0.03539653 -0.030250875 -0.5478312 -0.1244305 -0.4539418 0.46957242 -0.08016702 -0.21687898
VB -0.36877528 -0.34502938 -0.69715035 0.4060499 -1.0656108 -0.42184186 0.58575016 0.6096442 0.23130403 -0.02484371 -0.5451513 0.2587455 -0.32534713 0.006879884 -0.21721293 -0.2515574 -0.12637645 -0.06976858 0.08394889 0.28449428
VBP 0.024475645 0.58318615 0.025554288 0.14526199 -0.0726019 0.19094509 0.2511549 0.39119938 0.24615462 -0.36517087 0.07598937 0.47047502 0.105907276 0.41985112 -0.41067022 0.48158795 -0.39465648 1.1107488 -0.1915039 0.38117036
WRB -0.80233467 -0.3898392 -0.39880174 0.34028932 0.30253702 0.072874084 0.19114958 -0.34230068 -0.21239467 0.08917371 0.13941212 -0.25760874 0.09822859 -0.28504232 -0.09094739 0.18400119 -0.048928436 0.25069222 -0.29487926 -0.39103535
PDT -0.31420338 -0.24558489 0.02029398 -0.29899493 -0.36642006 0.1648658 0.018750114 -0.18031755 0.16130102 -0.17721044 -0.14422579 -0.17744331 0.24390368 0.0856379 0.016265225 -0.1435613 -0.12235868 0.23436974 -0.12854622 -0.3745788
VBZ -0.010385929 0.49170363 0.3083924 0.3190635 -0.20378256 -0.19197556 -0.06744166 -0.06325993 0.52144766 -0.41104326 0.054459415 0.031355802 0.09137669 0.10645446 -0.23914833 0.23588501 -0.32941929 0.891101 0.45353645 0.48263347
NN 0.049976856 -0.7628826 0.2437465 0.11746025 0.32806352 0.44542876 -0.6456542 0.5434856 0.20826541 0.48786148 -0.13760515 0.6801782 -0.83351845 0.19170578 0.70517266 0.85030925 -1.2554708 -0.11060716 -0.5462284 0.16018745
JJ 0.55062705 -0.57553923 -0.28214312 0.3593237 -0.48060617 0.34030646 -0.3983099 -0.40427458 -0.9853534 -0.6516959 0.74049014 0.07686676 0.37078062 -0.04513141 -0.40249285 -0.43924326 -0.5398188 -0.41901836 -0.06001011 0.74639046
POS -0.22232462 0.46793503 0.6870868 -0.19827327 0.033582997 -0.15913609 -0.17696676 0.13645837 -0.21527685 -0.34896865 0.25806242 0.14563587 -0.4690344 -0.3854868 0.285176 -0.5471511 0.2301311 -0.2000634 0.39282164 0.08550899
$ 0.39776218 0.64474326 0.3009443 0.7071649 -0.1629561 0.829896 -0.15056814 -0.14339967 0.32333213 1.0569118 0.5375066 0.2910184 -0.3570341 0.15329817 -0.04833376 -0.3815595 0.5786962 -1.1031452 0.22783943 0.35897872
-NONE- 0.12123591 -0.7515405 0.88732415 -0.35829163 0.5539256 -0.10419682 -0.11714395 1.0113814 0.07718562 -0.5077218 0.19245407 -0.79810184 0.34034333 0.34495527 0.034181394 -0.74515194 0.035201933 0.11891881 -0.82399976 0.37572628
VBN 0.10946651 0.5116169 -0.17608327 -0.7840586 0.18841045 -0.7717764 0.005036922 -0.58349645 -0.45653048 0.3703234 -0.10059658 0.24112912 -0.70940226 -0.014383183 -0.26497188 -0.2617499 -0.44769514 -0.30226007 -0.5164909 0.27057937
-LRB- 0.4466842 0.31759122 0.37720796 0.5454482 0.05108039 -0.5817919 -0.7941955 0.28844193 0.33108085 -0.25621793 0.49204385 0.10375129 -0.47262886 0.29401243 0.43695778 0.21274717 0.66229934 -0.9069149 0.5923141 0.6500431
LS 0.30100563 0.4349122 -0.17222776 -0.17069216 0.014918949 0.17402358 -0.5442903 0.069677144 0.52330166 -0.14749894 -0.0069416706 0.2245071 0.68173546 0.2212984 0.56886184 0.25237903 0.5292481 -0.13494386 0.067377865 -0.06308039
: 0.104677565 0.16628245 0.18018174 -0.0316618 0.24697873 -0.27906612 0.18331279 0.08002149 0.194396 0.10326558 0.46498743 -0.106176995 -0.22103736 0.11603307 0.25859103 0.10622474 0.5152966 -0.35671243 0.06259016 0.5263467
JJS -0.033601575 0.12577887 -0.19474475 -0.11979869 0.054204464 0.234814 -0.034920793 0.039309 -0.05386035 -0.2703904 0.00071024476 -0.40193838 -0.42029884 0.28072774 -0.0068325475 -0.12188998 -0.13896498 -0.008225164 -0.11308784 0.058785558
EX -0.1945116 0.018167108 -0.641929 0.018048063 0.24231963 0.25967374 0.3558284 -0.31238243 0.15749355 -0.56083584 -0.2553574 -0.1672057 -0.113213025 -0.9691457 0.44736418 -0.08353449 0.10695624 0.3882343 -0.8923319 -0.48877355
WDT -0.7247719 -0.1776629 -0.41239956 -0.0041607656 0.3409651 0.48902026 0.1974772 -0.25491828 -0.33827218 0.20909758 -0.044023056 -0.12201752 -0.1495359 -0.4232679 0.05047699 0.15267617 0.2907429 -0.12268198 0.29417798 -0.02951325
CC -0.5784441 0.1922572 0.11806067 0.14453545 0.043711964 -0.04641389 -0.2641303 -0.20421003 -0.5538158 0.24617837 -0.39621735 -0.39709786 0.07125478 1.0020634 0.70701724 -0.5175496 0.034763247 0.2709305 0.357999 0.19756289
NNP 0.5900262 0.4106371 -1.0170937 -0.40422204 -0.32394704 1.0651109 -0.54301804 0.23143274 0.328646 -0.17856342 -0.8249955 -0.16262192 0.1859915 0.1982293 -0.45433322 -0.17903125 0.28605917 -0.0036742561 -0.80419606 -0.21018201
-RRB- 0.3554154 0.5332218 0.4837689 0.30177206 -0.0025740135 -0.018075636 0.15592998 -0.34996605 0.3956618 0.27523458 0.63303685 -0.023319626 0.59526324 0.25973898 1.0366471 0.055819023 0.30434397 -1.3114153 -0.12789601 0.13312891
NNPS 0.1828266 -0.02021041 0.6879014 0.47678423 0.12770095 -0.3712715 -0.5033428 -0.0024912779 0.15050295 -0.40378335 0.39560908 -0.24027382 -0.3707963 -0.43187043 0.073845275 0.06788543 -0.15631665 -0.9064453 0.6260804 -0.12193217
IN -0.19039558 -0.12041633 -1.1358823 -0.26793355 0.7715028 -0.6033149 -0.29881546 0.7022501 0.38711727 0.3432399 0.8590772 0.5562409 0.7454969 0.0877079 0.21797018 -0.5753064 -0.066695586 0.19937667 0.6513854 -0.13679273
# 0.9568864 0.22975124 -0.34218773 0.15209015 -0.57739097 0.4328634 -0.15682189 -0.128575 0.19187431 0.9584158 0.2660051 0.07126721 -0.16388114 0.5305186 0.24890876 -0.18900204 0.701633 -0.66033405 -0.40734014 0.24911772
`` -0.5540368 -0.61885923 -0.49264595 0.07372114 0.5118989 -0.5259571 -0.4477293 -0.50097024 -0.15833083 -0.5615016 -0.2942699 -0.517232 -0.17620216 -0.2593526 -0.4794737 0.5240121 -0.045529447 0.5510581 -0.18070629 -0.32498834
SYM -0.23834789 0.1367313 0.15851621 0.028121533 0.0026478635 -0.2606306 0.13507307 -0.24599493 -0.06160865 -0.025494039 0.20036465 0.07791651 0.036109615 -0.18196186 0.2961408 0.01709653 -0.028555747 0.21244891 0.29771292 0.20756106
VBD 0.24217883 0.5892356 0.09649118 0.19124347 -0.29859492 -0.1883439 0.36741987 0.24646088 0.3891539 -0.157323 0.29733226 -0.15287913 -0.15305698 0.2173635 -0.044748638 0.4567667 -0.21225072 0.3740625 0.58982116 0.9820871
RB -0.101763226 0.044955958 0.15162075 -0.5913958 -0.8462039 0.052037124 -0.6941679 0.8698358 -0.6828923 0.5583489 0.40889257 -0.50905937 0.0090031475 -0.45991185 -0.15577234 0.35435307 0.051306326 0.19840644 0.107545614 -0.52944446
NNS 0.6428752 -0.48528618 0.50831217 -0.04876568 -0.10607555 0.104828395 -0.3330339 -0.66147125 1.1707138 0.7063793 -0.45065036 -0.4796985 0.054309983 -0.52162516 -0.45671135 -0.4391469 -0.27648583 0.15370838 0.4169582 -0.23870794